FANN_FLO_2.1
num_layers=2
learning_rate=0.700000
connection_rate=1.000000
network_type=1
learning_momentum=0.000000
training_algorithm=2
train_error_function=1
train_stop_function=0
cascade_output_change_fraction=0.010000
quickprop_decay=-0.000100
quickprop_mu=1.750000
rprop_increase_factor=1.200000
rprop_decrease_factor=0.500000
rprop_delta_min=0.000000
rprop_delta_max=50.000000
rprop_delta_zero=0.100000
cascade_output_stagnation_epochs=12
cascade_candidate_change_fraction=0.010000
cascade_candidate_stagnation_epochs=12
cascade_max_out_epochs=150
cascade_min_out_epochs=50
cascade_max_cand_epochs=150
cascade_min_cand_epochs=50
cascade_num_candidate_groups=2
bit_fail_limit=3.49999999999999977796e-01
cascade_candidate_limit=1.00000000000000000000e+03
cascade_weight_multiplier=4.00000000000000022204e-01
cascade_activation_functions_count=10
cascade_activation_functions=3 5 7 8 10 11 14 15 16 17 
cascade_activation_steepnesses_count=4
cascade_activation_steepnesses=2.50000000000000000000e-01 5.00000000000000000000e-01 7.50000000000000000000e-01 1.00000000000000000000e+00 
layer_sizes=5 10 
scale_included=0
neurons (num_inputs, activation_function, activation_steepness)=(0, 0, 0.00000000000000000000e+00) (0, 0, 0.00000000000000000000e+00) (0, 0, 0.00000000000000000000e+00) (0, 0, 0.00000000000000000000e+00) (0, 0, 0.00000000000000000000e+00) (5, 4, 5.00000000000000000000e-01) (5, 4, 5.00000000000000000000e-01) (5, 4, 5.00000000000000000000e-01) (5, 4, 5.00000000000000000000e-01) (5, 4, 5.00000000000000000000e-01) (5, 4, 5.00000000000000000000e-01) (5, 4, 5.00000000000000000000e-01) (5, 4, 5.00000000000000000000e-01) (5, 4, 5.00000000000000000000e-01) (5, 4, 5.00000000000000000000e-01) 
connections (connected_to_neuron, weight)=(0, -1.20337013617181565195e+00) (1, -1.33357045516395400497e+00) (2, -1.30749614626192878220e+00) (3, -1.16549367919587876230e+00) (4, 5.18693042369862133967e-01) (0, -1.37939062397623146694e+00) (1, -1.47341958116436089199e+00) (2, -1.45479670222544754665e+00) (3, -1.38794985096597756069e+00) (4, 3.80616469098107812474e-01) (0, -1.64541242750430183328e+00) (1, -1.61462847994709091104e+00) (2, -1.65237134428763465799e+00) (3, -1.55120229082250671304e+00) (4, 1.97620586706177769898e-01) (0, -1.44170458946443469372e+00) (1, -1.33447452966190227563e+00) (2, -1.43164704699135691968e+00) (3, -1.39814649853921801892e+00) (4, 4.34375590467700356534e-01) (0, -1.05557265563703794875e+00) (1, -1.02448941453195829787e+00) (2, -1.03956834657884855666e+00) (3, -1.05891544802881498732e+00) (4, -8.88620785330765494692e-01) (0, -1.63818253941764724324e+00) (1, -1.54019664220442709102e+00) (2, -1.67773596934904944966e+00) (3, -1.55691406123270881245e+00) (4, 1.16035091179722854582e-01) (0, -7.11577728085283300885e-01) (1, -7.54767864637140295514e-01) (2, -7.98003293268445990094e-01) (3, -6.70991152219537756451e-01) (4, 7.73805427233232534512e-01) (0, 5.82647750291419019852e-01) (1, 5.49816528472495069657e-01) (2, 5.54599898073267927323e-01) (3, 6.28189811620306959306e-01) (4, 3.03739567299557267077e+00) (0, -1.06884875689960301415e+00) (1, -1.24330346082664333629e+00) (2, -1.17850389127946697521e+00) (3, -1.22888132726169430065e+00) (4, 6.83817301464328397564e-01) (0, -5.89951346989343039517e-01) (1, -7.03066605504224173551e-01) (2, -6.69122192438313834195e-01) (3, -7.38656531449029318814e-01) (4, -2.70816512553448407452e-01) 
