FANN_FLO_2.1
num_layers=2
learning_rate=0.700000
connection_rate=1.000000
network_type=1
learning_momentum=0.000000
training_algorithm=2
train_error_function=1
train_stop_function=0
cascade_output_change_fraction=0.010000
quickprop_decay=-0.000100
quickprop_mu=1.750000
rprop_increase_factor=1.200000
rprop_decrease_factor=0.500000
rprop_delta_min=0.000000
rprop_delta_max=50.000000
rprop_delta_zero=0.100000
cascade_output_stagnation_epochs=12
cascade_candidate_change_fraction=0.010000
cascade_candidate_stagnation_epochs=12
cascade_max_out_epochs=150
cascade_min_out_epochs=50
cascade_max_cand_epochs=150
cascade_min_cand_epochs=50
cascade_num_candidate_groups=2
bit_fail_limit=3.49999999999999977796e-01
cascade_candidate_limit=1.00000000000000000000e+03
cascade_weight_multiplier=4.00000000000000022204e-01
cascade_activation_functions_count=10
cascade_activation_functions=3 5 7 8 10 11 14 15 16 17 
cascade_activation_steepnesses_count=4
cascade_activation_steepnesses=2.50000000000000000000e-01 5.00000000000000000000e-01 7.50000000000000000000e-01 1.00000000000000000000e+00 
layer_sizes=5 10 
scale_included=0
neurons (num_inputs, activation_function, activation_steepness)=(0, 0, 0.00000000000000000000e+00) (0, 0, 0.00000000000000000000e+00) (0, 0, 0.00000000000000000000e+00) (0, 0, 0.00000000000000000000e+00) (0, 0, 0.00000000000000000000e+00) (5, 4, 5.00000000000000000000e-01) (5, 4, 5.00000000000000000000e-01) (5, 4, 5.00000000000000000000e-01) (5, 4, 5.00000000000000000000e-01) (5, 4, 5.00000000000000000000e-01) (5, 4, 5.00000000000000000000e-01) (5, 4, 5.00000000000000000000e-01) (5, 4, 5.00000000000000000000e-01) (5, 4, 5.00000000000000000000e-01) (5, 4, 5.00000000000000000000e-01) 
connections (connected_to_neuron, weight)=(0, -2.12833018424892195242e+00) (1, -2.25853050324106030544e+00) (2, -2.23245619433903508266e+00) (3, -2.09045372727298506277e+00) (4, -4.06267005707244388546e-01) (0, -2.20009464469337334691e+00) (1, -2.29412360188150277196e+00) (2, -2.27550072294258942662e+00) (3, -2.20865387168311944066e+00) (4, -4.40087551619033900963e-01) (0, -2.03411642175698093027e+00) (1, -2.00333247419977000803e+00) (2, -2.04107533854031375498e+00) (3, -1.93990628507518581003e+00) (4, -1.91083407546501327090e-01) (0, -1.67066457662559253450e+00) (1, -1.56343451682306033845e+00) (2, -1.66060703415251476045e+00) (3, -1.62710648570037585969e+00) (4, 2.05415603306542182693e-01) (0, -1.54651663247323734041e+00) (1, -1.51543339136815768953e+00) (2, -1.53051232341504794832e+00) (3, -1.54985942486501437898e+00) (4, -1.37956476216696510839e+00) (0, -1.93466901338673302746e+00) (1, -1.83668311617351287524e+00) (2, -1.97422244331813523388e+00) (3, -1.85340053520179459667e+00) (4, -1.80451382789362901882e-01) (0, -1.05093773243642130133e+00) (1, -1.09412786898827829596e+00) (2, -1.13736329761958399054e+00) (3, -1.01035115657067575690e+00) (4, 4.34445422882094589578e-01) (0, 3.12887730001997876883e-01) (1, 2.80056508183073926688e-01) (2, 2.84839877783846784354e-01) (3, 3.58429791330885816336e-01) (4, 2.76763565270615075065e+00) (0, -1.76820878092027422568e+00) (1, -1.94266348484731432578e+00) (2, -1.87786391530013796469e+00) (3, -1.92824135128236529013e+00) (4, -1.55427225563424808996e-02) (0, -8.40511339908309951241e-01) (1, -9.53626598423191085274e-01) (2, -9.19682185357280745919e-01) (3, -9.89216524367996230538e-01) (4, -5.21376505472415208153e-01) 
