FANN_FLO_2.1
num_layers=6
learning_rate=0.700000
connection_rate=1.000000
network_type=0
learning_momentum=0.000000
training_algorithm=2
train_error_function=1
train_stop_function=0
cascade_output_change_fraction=0.010000
quickprop_decay=-0.000100
quickprop_mu=1.750000
rprop_increase_factor=1.200000
rprop_decrease_factor=0.500000
rprop_delta_min=0.000000
rprop_delta_max=50.000000
rprop_delta_zero=0.100000
cascade_output_stagnation_epochs=12
cascade_candidate_change_fraction=0.010000
cascade_candidate_stagnation_epochs=12
cascade_max_out_epochs=150
cascade_min_out_epochs=50
cascade_max_cand_epochs=150
cascade_min_cand_epochs=50
cascade_num_candidate_groups=2
bit_fail_limit=3.49999999999999977796e-01
cascade_candidate_limit=1.00000000000000000000e+03
cascade_weight_multiplier=4.00000000000000022204e-01
cascade_activation_functions_count=10
cascade_activation_functions=3 5 7 8 10 11 14 15 16 17 
cascade_activation_steepnesses_count=4
cascade_activation_steepnesses=2.50000000000000000000e-01 5.00000000000000000000e-01 7.50000000000000000000e-01 1.00000000000000000000e+00 
layer_sizes=5 6 7 8 9 11 
scale_included=0
neurons (num_inputs, activation_function, activation_steepness)=(0, 0, 0.00000000000000000000e+00) (0, 0, 0.00000000000000000000e+00) (0, 0, 0.00000000000000000000e+00) (0, 0, 0.00000000000000000000e+00) (0, 0, 0.00000000000000000000e+00) (5, 4, 5.00000000000000000000e-01) (5, 4, 5.00000000000000000000e-01) (5, 4, 5.00000000000000000000e-01) (5, 4, 5.00000000000000000000e-01) (5, 4, 5.00000000000000000000e-01) (0, 0, 0.00000000000000000000e+00) (6, 4, 5.00000000000000000000e-01) (6, 4, 5.00000000000000000000e-01) (6, 4, 5.00000000000000000000e-01) (6, 4, 5.00000000000000000000e-01) (6, 4, 5.00000000000000000000e-01) (6, 4, 5.00000000000000000000e-01) (0, 0, 0.00000000000000000000e+00) (7, 4, 5.00000000000000000000e-01) (7, 4, 5.00000000000000000000e-01) (7, 4, 5.00000000000000000000e-01) (7, 4, 5.00000000000000000000e-01) (7, 4, 5.00000000000000000000e-01) (7, 4, 5.00000000000000000000e-01) (7, 4, 5.00000000000000000000e-01) (0, 0, 0.00000000000000000000e+00) (8, 4, 5.00000000000000000000e-01) (8, 4, 5.00000000000000000000e-01) (8, 4, 5.00000000000000000000e-01) (8, 4, 5.00000000000000000000e-01) (8, 4, 5.00000000000000000000e-01) (8, 4, 5.00000000000000000000e-01) (8, 4, 5.00000000000000000000e-01) (8, 4, 5.00000000000000000000e-01) (0, 0, 0.00000000000000000000e+00) (9, 4, 5.00000000000000000000e-01) (9, 4, 5.00000000000000000000e-01) (9, 4, 5.00000000000000000000e-01) (9, 4, 5.00000000000000000000e-01) (9, 4, 5.00000000000000000000e-01) (9, 4, 5.00000000000000000000e-01) (9, 4, 5.00000000000000000000e-01) (9, 4, 5.00000000000000000000e-01) (9, 4, 5.00000000000000000000e-01) (9, 4, 5.00000000000000000000e-01) (0, 0, 0.00000000000000000000e+00) 
connections (connected_to_neuron, weight)=(0, 1.03933364152908325195e-02) (1, 8.06729421019554138184e-02) (2, 7.02285394072532653809e-02) (3, -6.88914582133293151855e-02) (4, -5.87191656231880187988e-02) (0, -9.30006578564643859863e-02) (1, -6.19767121970653533936e-02) (2, -4.25624661147594451904e-02) (3, 5.26230707764625549316e-02) (4, 3.58891263604164123535e-02) (0, -1.15007236599922180176e-02) (1, -9.26086455583572387695e-02) (2, -7.34385326504707336426e-02) (3, -8.14524888992309570312e-02) (4, 2.80912145972251892090e-02) (0, -7.08926469087600708008e-02) (1, -9.27852392196655273438e-02) (2, -4.15248982608318328857e-02) (3, 9.10040810704231262207e-02) (4, -9.43876057863235473633e-02) (0, 2.75064632296562194824e-02) (1, -9.88824591040611267090e-02) (2, 8.25254991650581359863e-02) (3, 6.07059150934219360352e-03) (4, 2.84307673573493957520e-02) (5, 3.58234569430351257324e-02) (6, 8.48137214779853820801e-02) (7, 6.43545016646385192871e-02) (8, 6.17806613445281982422e-03) (9, 3.48334982991218566895e-02) (10, 4.63972166180610656738e-02) (5, -1.89150124788284301758e-03) (6, 9.57373529672622680664e-03) (7, -9.43082720041275024414e-02) (8, -3.91619615256786346436e-02) (9, 4.85676527023315429688e-03) (10, 2.76359394192695617676e-02) (5, 7.71455988287925720215e-02) (6, -1.39347463846206665039e-02) (7, -1.35694444179534912109e-03) (8, -6.18951022624969482422e-03) (9, -2.70209386944770812988e-02) (10, 5.90620115399360656738e-02) (5, 5.53575530648231506348e-02) (6, -5.67329674959182739258e-03) (7, 4.89194914698600769043e-02) (8, -1.02011784911155700684e-02) (9, -5.12703768908977508545e-02) (10, 9.88307669758796691895e-02) (5, 4.85941246151924133301e-02) (6, -7.86951333284378051758e-02) (7, -2.90587246417999267578e-02) (8, 9.99045372009277343750e-03) (9, -9.04043316841125488281e-02) (10, -2.56369784474372863770e-02) (5, -8.06523561477661132812e-02) (6, 7.58456811308860778809e-02) (7, -6.16546384990215301514e-02) (8, -2.95386910438537597656e-02) (9, -5.68158254027366638184e-02) (10, 9.64478328824043273926e-02) (11, -1.17729604244232177734e-03) (12, 1.32613182067871093750e-02) (13, 8.30260738730430603027e-02) (14, 1.92704051733016967773e-02) (15, 7.77742490172386169434e-02) (16, -4.81969416141510009766e-02) (17, -4.59910444915294647217e-02) (11, 2.85485312342643737793e-02) (12, 1.50480642914772033691e-02) (13, -8.71747285127639770508e-02) (14, 5.43739870190620422363e-02) (15, 6.36104419827461242676e-02) (16, -9.95163246989250183105e-02) (17, 2.91542634367942810059e-02) (11, -4.21670824289321899414e-03) (12, -7.02209472656250000000e-02) (13, -3.50271910429000854492e-03) (14, -7.02602788805961608887e-02) (15, -6.44630864262580871582e-02) (16, -3.10823321342468261719e-02) (17, -7.38427042961120605469e-04) (11, -1.06736570596694946289e-02) (12, 7.76040554046630859375e-03) (13, 2.91633680462837219238e-02) (14, -5.12127541005611419678e-02) (15, 6.72296956181526184082e-02) (16, -7.05748721957206726074e-02) (17, 4.80887964367866516113e-02) (11, 2.84748747944831848145e-02) (12, -2.27814540266990661621e-02) (13, -8.79003554582595825195e-02) (14, 5.87681606411933898926e-02) (15, -8.33647698163986206055e-02) (16, 8.83404389023780822754e-02) (17, -6.22982457280158996582e-02) (11, -4.65796552598476409912e-02) (12, -6.42514526844024658203e-02) (13, -7.40648061037063598633e-02) (14, -7.25232809782028198242e-03) (15, -8.99417921900749206543e-02) (16, -5.16715198755264282227e-02) (17, -4.32310402393341064453e-02) (11, 1.59243568778038024902e-02) (12, 4.07154783606529235840e-02) (13, -9.49947908520698547363e-02) (14, 2.25924476981163024902e-02) (15, -8.86789262294769287109e-02) (16, -2.66801789402961730957e-02) (17, -1.37762650847434997559e-02) (18, 6.22742697596549987793e-02) (19, 4.35498133301734924316e-02) (20, -5.83018921315670013428e-02) (21, -7.98490792512893676758e-02) (22, -2.34012454748153686523e-02) (23, 9.51771214604377746582e-02) (24, 4.18286994099617004395e-02) (25, 1.48566141724586486816e-02) (18, 9.50698927044868469238e-02) (19, 3.98510023951530456543e-02) (20, -2.42517441511154174805e-02) (21, 1.02430582046508789062e-03) (22, 1.54163613915443420410e-02) (23, -9.71693620085716247559e-02) (24, 7.45437070727348327637e-02) (25, 5.59828355908393859863e-02) (18, -9.65858772397041320801e-02) (19, 8.11597034335136413574e-02) (20, 5.09726777672767639160e-02) (21, 9.76837202906608581543e-02) (22, -2.97772735357284545898e-02) (23, -6.65637701749801635742e-02) (24, 6.28385916352272033691e-02) (25, -7.18611180782318115234e-02) (18, 3.02418991923332214355e-02) (19, 7.55913481116294860840e-02) (20, 6.38736113905906677246e-02) (21, -7.62167721986770629883e-02) (22, 2.47192382812500000000e-02) (23, 5.61761632561683654785e-02) (24, -4.73105870187282562256e-02) (25, 5.09706512093544006348e-02) (18, 6.37094452977180480957e-02) (19, -3.53155955672264099121e-02) (20, 5.07325902581214904785e-02) (21, 6.26159086823463439941e-02) (22, -1.44387185573577880859e-02) (23, -7.15859532356262207031e-02) (24, 5.49123659729957580566e-02) (25, -8.78623127937316894531e-02) (18, 9.80854853987693786621e-02) (19, -7.71420449018478393555e-02) (20, 7.36577734351158142090e-02) (21, -3.37817296385765075684e-02) (22, 3.04031744599342346191e-02) (23, -1.38223543763160705566e-02) (24, 8.77266749739646911621e-02) (25, 2.21933275461196899414e-02) (18, 3.13962996006011962891e-03) (19, -3.22650596499443054199e-02) (20, -7.89258778095245361328e-02) (21, 9.27593037486076354980e-02) (22, 5.52256405353546142578e-03) (23, 1.77411288022994995117e-02) (24, -2.47486904263496398926e-02) (25, 4.88341525197029113770e-02) (18, -4.42534349858760833740e-02) (19, 3.25796678662300109863e-02) (20, -3.34131270647048950195e-02) (21, 2.55113318562507629395e-02) (22, -3.10147702693939208984e-02) (23, -6.52308613061904907227e-02) (24, 6.50097802281379699707e-02) (25, 1.93838477134704589844e-02) (26, -1.56861990690231323242e-02) (27, -3.79314422607421875000e-02) (28, 8.62801596522331237793e-02) (29, -8.95243212580680847168e-02) (30, -3.51890400052070617676e-02) (31, -2.21729427576065063477e-02) (32, -6.07109293341636657715e-02) (33, 3.14172580838203430176e-02) (34, 2.97089442610740661621e-02) (26, -8.18072259426116943359e-02) (27, 6.59693703055381774902e-02) (28, -5.26698864996433258057e-02) (29, -2.27491557598114013672e-02) (30, 5.48959299921989440918e-02) (31, 3.57572808861732482910e-02) (32, -2.73649990558624267578e-02) (33, 7.65099599957466125488e-02) (34, -9.71009731292724609375e-02) (26, 2.39962935447692871094e-02) (27, -9.43028181791305541992e-02) (28, 5.26006445288658142090e-02) (29, 5.91151788830757141113e-02) (30, -5.10823950171470642090e-02) (31, 5.82123771309852600098e-02) (32, -2.46295407414436340332e-02) (33, 5.13109043240547180176e-02) (34, -1.74733176827430725098e-02) (26, -7.39886015653610229492e-02) (27, 7.35611692070960998535e-02) (28, -5.73761239647865295410e-02) (29, 7.94848576188087463379e-02) (30, -9.80012938380241394043e-02) (31, 9.22889187932014465332e-02) (32, 9.98111441731452941895e-02) (33, -7.41906687617301940918e-02) (34, 7.74209275841712951660e-02) (26, 1.36032924056053161621e-02) (27, 3.06349620223045349121e-02) (28, 8.18124338984489440918e-02) (29, 2.14621201157569885254e-02) (30, -8.60836580395698547363e-02) (31, -7.95447081327438354492e-03) (32, -9.08121541142463684082e-02) (33, -7.98412561416625976562e-02) (34, -9.19808596372604370117e-02) (26, 7.77156278491020202637e-02) (27, -3.36010083556175231934e-02) (28, 6.78718760609626770020e-02) (29, -7.74794742465019226074e-02) (30, 2.50782072544097900391e-03) (31, -5.10562658309936523438e-02) (32, 9.73499491810798645020e-02) (33, -3.93368303775787353516e-02) (34, 6.59392699599266052246e-02) (26, 4.14289161562919616699e-02) (27, 9.57025960087776184082e-02) (28, 7.35060498118400573730e-02) (29, 1.60396695137023925781e-02) (30, -2.12516635656356811523e-02) (31, 2.33301967382431030273e-02) (32, -8.93198475241661071777e-02) (33, 1.37909501791000366211e-03) (34, -2.15539336204528808594e-02) (26, -5.70087060332298278809e-02) (27, 5.47249987721443176270e-02) (28, -3.70226949453353881836e-02) (29, -4.03395369648933410645e-02) (30, 1.34027004241943359375e-02) (31, 5.91446533799171447754e-02) (32, 4.42093834280967712402e-02) (33, 2.71350219845771789551e-02) (34, 5.81855848431587219238e-02) (26, -7.50903114676475524902e-02) (27, -4.28536832332611083984e-02) (28, -4.18818295001983642578e-02) (29, 9.20983031392097473145e-02) (30, 9.62308868765830993652e-02) (31, -4.74717728793621063232e-02) (32, -5.80816790461540222168e-02) (33, 2.12628617882728576660e-02) (34, -3.50825414061546325684e-02) (26, -3.22619527578353881836e-02) (27, -2.65643373131752014160e-02) (28, -6.68229162693023681641e-02) (29, -9.26298201084136962891e-02) (30, -2.94162482023239135742e-02) (31, 1.17649883031845092773e-03) (32, -2.66256257891654968262e-02) (33, -9.69531089067459106445e-02) (34, -9.09185931086540222168e-02) 
